Language model created by QuickLM on Fri Jul  6 08:12:52 EDT 2018
Copyright (c) 1996-2010 Carnegie Mellon University and Alexander I. Rudnicky

The model is in standard ARPA format, designed by Doug Paul while he was at MITRE.

The code that was used to produce this language model is available in Open Source.
Please visit http://www.speech.cs.cmu.edu/tools/ for more information

The (fixed) discount mass is 0.5. The backoffs are computed using the ratio method.
This model based on a corpus of 16 sentences and 28 words

\data\
ngram 1=28
ngram 2=42
ngram 3=33

\1-grams:
-0.9165 </s> -0.3010
-0.9165 <s> -0.2449
-2.1206 A -0.2977
-1.8195 ALARM -0.2449
-2.1206 BE -0.2977
-2.1206 BOOK -0.2977
-2.1206 COFFEE -0.2449
-2.1206 EXERCISE -0.2449
-2.1206 FLIGHT -0.2449
-2.1206 FOOD -0.2449
-1.2755 GET -0.2774
-2.1206 GRATEFUL -0.2449
-2.1206 HEY -0.2977
-2.1206 I -0.2977
-2.1206 JIM -0.2449
-2.1206 LOVE -0.2977
-2.1206 MEDITATE -0.2449
-2.1206 MUSIC -0.2449
-2.1206 NEWS -0.2449
-2.1206 PLAY -0.2977
-2.1206 SEARCH -0.2449
-2.1206 SET -0.2944
-2.1206 SOCIAL -0.2449
-2.1206 SPORTS -0.2449
-2.1206 STOP -0.2944
-1.8195 THE -0.2944
-2.1206 WEATHER -0.2449
-2.1206 YOU -0.2449

\2-grams:
-1.5051 <s> BE 0.0000
-1.5051 <s> BOOK 0.0000
-0.6601 <s> GET 0.0000
-1.5051 <s> HEY 0.0000
-1.5051 <s> I 0.0000
-1.5051 <s> MEDITATE 0.0000
-1.5051 <s> PLAY 0.0000
-1.5051 <s> SEARCH 0.0000
-1.5051 <s> SET 0.0000
-1.5051 <s> STOP 0.0000
-0.3010 A FLIGHT 0.0000
-0.3010 ALARM </s> -0.3010
-0.3010 BE GRATEFUL 0.0000
-0.3010 BOOK A 0.0000
-0.3010 COFFEE </s> -0.3010
-0.3010 EXERCISE </s> -0.3010
-0.3010 FLIGHT </s> -0.3010
-0.3010 FOOD </s> -0.3010
-1.1461 GET COFFEE 0.0000
-1.1461 GET EXERCISE 0.0000
-1.1461 GET FOOD 0.0000
-1.1461 GET SOCIAL 0.0000
-1.1461 GET SPORTS 0.0000
-0.8451 GET THE 0.0000
-0.3010 GRATEFUL </s> -0.3010
-0.3010 HEY JIM 0.0000
-0.3010 I LOVE 0.0000
-0.3010 JIM </s> -0.3010
-0.3010 LOVE YOU 0.0000
-0.3010 MEDITATE </s> -0.3010
-0.3010 MUSIC </s> -0.3010
-0.3010 NEWS </s> -0.3010
-0.3010 PLAY MUSIC 0.0000
-0.3010 SEARCH </s> -0.3010
-0.3010 SET ALARM 0.0000
-0.3010 SOCIAL </s> -0.3010
-0.3010 SPORTS </s> -0.3010
-0.3010 STOP ALARM 0.0000
-0.6021 THE NEWS 0.0000
-0.6021 THE WEATHER 0.0000
-0.3010 WEATHER </s> -0.3010
-0.3010 YOU </s> -0.3010

\3-grams:
-0.3010 <s> BE GRATEFUL
-0.3010 <s> BOOK A
-1.1461 <s> GET COFFEE
-1.1461 <s> GET EXERCISE
-1.1461 <s> GET FOOD
-1.1461 <s> GET SOCIAL
-1.1461 <s> GET SPORTS
-0.8451 <s> GET THE
-0.3010 <s> HEY JIM
-0.3010 <s> I LOVE
-0.3010 <s> MEDITATE </s>
-0.3010 <s> PLAY MUSIC
-0.3010 <s> SEARCH </s>
-0.3010 <s> SET ALARM
-0.3010 <s> STOP ALARM
-0.3010 A FLIGHT </s>
-0.3010 BE GRATEFUL </s>
-0.3010 BOOK A FLIGHT
-0.3010 GET COFFEE </s>
-0.3010 GET EXERCISE </s>
-0.3010 GET FOOD </s>
-0.3010 GET SOCIAL </s>
-0.3010 GET SPORTS </s>
-0.6021 GET THE NEWS
-0.6021 GET THE WEATHER
-0.3010 HEY JIM </s>
-0.3010 I LOVE YOU
-0.3010 LOVE YOU </s>
-0.3010 PLAY MUSIC </s>
-0.3010 SET ALARM </s>
-0.3010 STOP ALARM </s>
-0.3010 THE NEWS </s>
-0.3010 THE WEATHER </s>

\end\
